14 100
霍乱时期的爱情 -0.003257 0.000440 -0.000263 -0.001616 -0.004706 0.003325 -0.004389 -0.001888 0.002755 -0.001757 -0.004869 -0.003413 0.000994 0.004620 -0.004478 -0.001843 -0.004577 -0.001663 0.003697 -0.001639 -0.003098 0.000132 0.004629 -0.003916 -0.003246 -0.004053 -0.002246 0.004256 0.000541 0.000066 0.003727 -0.001860 -0.001463 0.001327 -0.000253 -0.003535 -0.002816 0.004243 -0.000495 0.004178 0.004494 -0.002121 0.000937 -0.003373 -0.000663 0.003504 0.001001 -0.002340 -0.001568 0.004880 0.004270 0.004707 0.002680 -0.002515 -0.003846 0.002970 -0.004355 0.003879 -0.004430 0.000456 -0.001576 0.001020 -0.003245 0.002122 0.003478 0.001791 0.000810 -0.001361 0.002842 0.000529 -0.004774 -0.002831 -0.001436 -0.004665 0.001641 0.004181 -0.002808 0.000713 -0.002728 0.002323 0.004413 0.002308 -0.003936 0.004655 0.001236 0.004195 -0.002783 0.003868 0.003079 -0.000973 0.001520 -0.003328 0.000087 0.000621 0.003434 0.004164 -0.002256 -0.002878 0.004922 0.000664
迟到的间隔年 0.001197 0.002875 0.004943 0.002540 -0.001652 0.003102 0.002011 -0.004969 -0.004106 -0.001484 -0.004612 0.000760 0.001117 -0.000214 0.002754 -0.004796 0.001545 -0.002909 0.003107 0.004521 0.003636 -0.004460 -0.003501 0.003193 -0.001441 -0.003975 0.003004 -0.000837 0.003910 0.004892 0.003550 0.004802 -0.001138 -0.002322 -0.001197 0.000932 0.003322 -0.000010 -0.004935 0.004814 -0.000106 -0.002657 0.001634 -0.003761 0.001350 0.002576 -0.001887 0.003825 -0.002814 0.001942 0.001262 0.003728 0.004501 -0.001302 -0.002860 -0.000675 -0.003932 0.003889 -0.002166 0.000686 0.000130 -0.001999 -0.003162 0.004552 0.004658 -0.002567 0.004456 0.001572 -0.002868 -0.001613 0.003420 0.004285 -0.004899 -0.000822 -0.002556 0.000755 -0.003113 -0.001142 0.004033 0.003572 -0.000381 0.000930 0.002085 -0.000734 -0.000853 -0.004695 0.001063 -0.000147 0.003270 0.001941 0.000230 -0.001562 0.000496 0.001814 -0.003462 0.002715 -0.000226 0.004569 -0.004247 0.000899
失控 -0.001002 0.003231 -0.003352 0.004911 -0.004616 -0.002751 0.001595 0.000377 0.002981 0.003687 -0.004723 0.004547 0.003057 0.000124 0.000612 -0.000856 -0.002614 0.004666 0.001971 0.002790 0.000608 -0.000056 0.002620 0.001862 0.003134 -0.002761 0.004197 -0.002116 -0.001578 -0.000640 0.004935 0.004570 -0.002667 -0.000845 -0.004894 0.003926 -0.002622 0.003478 -0.001986 0.000325 -0.001859 -0.003951 0.002124 -0.004910 0.002384 0.001971 -0.002235 -0.002842 0.002414 -0.000076 0.003209 0.004588 -0.001361 0.000198 0.004882 0.001318 -0.002863 0.000647 -0.003546 -0.004122 -0.002675 -0.004949 0.002717 0.001884 0.000890 0.003634 0.003639 0.002752 -0.000371 -0.000644 -0.001602 -0.004232 0.002651 -0.001917 -0.002451 -0.002697 0.001975 0.000174 0.001766 -0.000495 0.002654 0.002648 -0.002809 -0.000809 0.004615 -0.002215 0.002953 -0.003929 -0.003609 -0.002557 0.002100 0.001564 -0.003928 0.003574 0.002160 0.001742 0.000006 0.003686 0.002527 0.000441
背包十年:我的职业是旅行 -0.003265 0.002063 -0.001219 -0.003976 -0.003813 -0.002876 -0.000952 -0.003704 0.003838 -0.000652 0.003180 0.003281 0.001987 -0.002609 -0.001780 -0.000562 0.004733 -0.000384 -0.003135 -0.000673 0.002483 -0.001441 0.002774 -0.002430 -0.003013 -0.001437 0.003675 0.000777 -0.003253 0.002592 0.002687 0.003114 0.004870 0.003845 0.004837 0.000057 -0.001981 -0.002282 -0.003118 0.002321 0.000467 0.004752 0.001060 0.003683 0.001208 0.003200 -0.001765 0.001939 0.002001 0.003775 -0.004949 -0.003372 -0.000028 0.003348 -0.003017 0.003615 -0.004959 -0.003835 -0.001352 -0.001268 -0.004420 -0.004619 -0.002326 -0.002853 0.001026 0.002526 0.000617 -0.000490 0.000322 0.002056 0.003299 -0.000243 0.003576 0.000677 0.001716 0.000291 -0.001576 0.002292 0.000668 -0.003979 0.000358 0.001619 0.000849 0.002922 0.004177 0.002770 0.002039 0.001839 -0.004609 0.004950 -0.003587 -0.002534 0.001811 -0.001976 0.004230 -0.001820 -0.002709 -0.002535 -0.004072 -0.003163
百年孤独 -0.002742 0.004691 -0.002553 -0.001190 -0.002585 0.001007 -0.001077 -0.000682 -0.000189 -0.000624 0.001550 -0.002171 -0.003288 -0.000412 -0.000179 0.002873 0.003830 -0.001656 -0.001368 -0.004324 -0.001006 0.001176 0.003334 0.002491 0.003880 0.002108 0.001112 0.000060 -0.003443 0.004899 -0.001591 0.003017 -0.002233 0.001448 -0.000928 -0.003199 -0.004811 -0.001794 -0.000930 -0.003953 0.000346 -0.004954 0.003368 -0.000686 -0.002616 -0.000064 0.004421 -0.001135 -0.003377 -0.003979 -0.004404 0.001981 0.003928 -0.002898 0.000423 -0.000572 0.000740 -0.001697 0.001874 -0.000452 0.000165 -0.004276 -0.001092 0.000926 -0.002336 0.002374 -0.000514 0.000278 0.002796 0.002743 0.002517 0.004389 -0.001587 -0.003125 -0.002971 -0.000883 -0.002653 -0.001992 0.001950 0.002587 0.001584 -0.004653 0.003829 -0.004918 0.000511 0.000382 0.004558 0.001664 -0.001522 0.004540 -0.004389 -0.000047 -0.004039 0.003690 -0.000104 -0.001248 0.000523 -0.002359 0.003352 0.004575
从0到1 0.004268 0.003929 0.001755 -0.001398 -0.000474 0.004088 0.002060 0.003379 0.001026 0.000344 0.000613 0.002814 0.000317 -0.003270 -0.004130 0.003576 0.004064 -0.004466 -0.002414 0.000467 -0.000057 -0.002154 -0.004524 0.004692 0.000038 0.000830 -0.002491 0.002266 -0.004995 0.004028 -0.002164 0.003568 0.004504 0.003635 -0.001473 -0.003766 0.001403 -0.002993 0.002923 -0.003887 0.001842 0.001573 -0.001895 0.000970 -0.003005 0.004431 0.000451 -0.003856 -0.002066 0.000539 0.004629 0.001802 -0.003373 -0.003066 0.002180 0.004454 -0.002565 -0.003832 0.003803 0.004655 -0.000732 -0.002825 0.003199 0.001443 -0.001152 0.003810 0.001785 -0.002702 0.001891 -0.004237 0.002222 -0.002148 -0.004537 -0.003298 0.000817 -0.004196 0.000942 -0.000550 -0.002446 0.001388 0.001271 0.000359 -0.002911 0.002675 -0.002479 0.002517 0.004596 -0.002464 0.004176 -0.001073 0.001910 0.002020 0.003337 0.003968 -0.000903 0.003772 -0.003531 0.004066 0.002326 0.004786
浪潮之巅 -0.002682 -0.003096 -0.001853 -0.001185 -0.001611 -0.001781 0.001608 -0.004979 0.003136 0.000525 0.004831 -0.004147 -0.000095 -0.000724 0.004676 -0.000091 0.004350 0.001161 0.001971 -0.003933 -0.002740 0.002392 -0.003203 -0.004980 0.002363 0.004140 -0.002504 0.000456 0.000066 0.002652 -0.002730 0.001771 0.004703 0.002086 -0.000030 0.001075 -0.001949 -0.000195 -0.003494 -0.001704 0.000995 -0.001982 -0.002837 0.001455 0.002681 0.001554 0.003798 0.002539 -0.001853 -0.003240 0.002196 0.004801 0.001744 -0.003796 0.002643 -0.003155 -0.004803 0.003729 0.003114 -0.001090 0.002014 0.000707 0.002404 0.003032 -0.003782 -0.000697 -0.002851 0.004827 0.004390 -0.002388 -0.000879 -0.003110 0.003659 0.002827 -0.000206 0.004145 -0.003215 -0.004736 0.003192 0.003871 -0.002586 0.000021 -0.003052 -0.001085 -0.002468 0.001858 -0.002795 0.004180 0.003997 -0.004972 0.002344 -0.000047 0.000223 0.000691 -0.002858 0.002319 -0.000864 -0.000608 -0.000012 -0.003142
创业维艰 -0.002613 -0.000448 -0.001155 -0.003462 -0.000130 -0.002757 -0.000375 -0.002495 -0.001887 0.000253 0.003125 0.002637 0.004831 -0.000657 0.002522 0.000431 -0.003717 0.003348 -0.004134 -0.004417 -0.004038 0.000096 -0.000811 -0.000826 0.001499 0.001116 0.004303 0.001435 0.003103 -0.000932 -0.004896 0.002758 0.004179 0.000617 0.002445 -0.004111 0.000915 -0.000085 0.001141 0.003379 0.000241 0.002005 0.001481 0.003596 -0.002081 -0.002420 0.000424 0.004522 -0.000907 0.004805 0.000852 0.002306 0.000147 0.000085 0.003036 -0.004020 0.004600 0.002634 -0.004657 -0.002579 -0.002020 -0.003117 -0.000825 0.004226 -0.003431 -0.002799 0.000233 -0.003432 -0.003353 0.002612 -0.003189 0.000499 -0.000220 0.004500 0.002978 -0.003625 0.004209 -0.000514 -0.001252 -0.000296 -0.004200 0.004043 -0.000182 0.002318 0.003968 -0.001863 -0.003973 -0.003277 0.000409 0.004953 0.000788 -0.004793 0.003619 0.001929 0.000475 0.003583 -0.001401 0.002560 -0.002462 -0.000707
寻路中国:从乡村到工厂的自驾之旅 -0.002195 -0.001699 0.002740 -0.000571 -0.004595 -0.003712 -0.004890 0.002211 0.002055 0.001205 0.001751 -0.001651 -0.002608 -0.000938 0.001188 -0.004042 -0.003137 0.003266 -0.000522 -0.001414 0.004492 0.004173 0.003979 -0.004247 -0.000145 0.003200 0.000741 -0.003446 -0.003250 -0.000287 -0.003839 -0.004774 -0.002775 -0.003641 -0.003816 0.001035 -0.002275 -0.004839 -0.001779 -0.003985 0.004358 -0.001503 0.004427 -0.000456 0.003435 -0.002928 0.004438 0.002036 0.002300 -0.000361 0.001658 0.000864 0.001011 -0.003109 -0.003447 -0.004216 -0.000718 0.002626 0.002036 0.004855 0.002316 -0.000769 0.002179 0.000568 -0.000762 -0.000884 -0.000249 0.004061 0.002977 0.002652 -0.000941 -0.000932 0.000479 -0.000205 0.000226 -0.001310 -0.002412 -0.000267 0.001588 0.001800 0.002755 0.000109 0.000179 -0.001807 0.000236 -0.001884 -0.002745 -0.004376 -0.004475 -0.002017 -0.000322 -0.002616 -0.004156 -0.003149 -0.000801 0.002833 -0.003722 -0.002208 0.003146 -0.003903
活着 0.003741 0.000720 0.004273 -0.003628 0.000683 -0.001463 0.000078 -0.002738 -0.004780 0.003684 0.002617 0.001303 -0.000842 -0.002602 -0.002455 0.004730 -0.004465 0.003885 -0.003516 0.001492 0.001972 0.000948 0.002967 -0.004096 -0.004844 0.000070 0.000862 -0.002813 -0.000788 0.003991 0.001950 0.001286 0.004603 -0.002558 -0.003207 0.000330 -0.001956 0.000238 -0.003959 0.004715 0.001948 0.004389 0.000992 -0.001603 -0.002674 0.001306 0.000240 0.001438 -0.001380 0.003832 -0.001498 -0.001493 -0.000913 0.001217 0.003629 0.000628 0.003544 -0.002702 0.004651 -0.000074 0.003324 0.003471 -0.002183 0.001759 -0.002416 -0.004085 -0.000956 -0.002343 -0.001828 -0.004747 0.000956 0.003675 -0.000258 0.003129 0.002025 0.002885 0.002679 -0.000640 0.004321 0.000008 -0.003951 0.003265 0.004414 0.001452 -0.001826 0.004453 -0.003202 -0.001700 0.003887 0.000836 0.004458 0.001027 0.002394 -0.001282 0.004779 0.003983 -0.003652 0.002117 -0.002460 0.002515
巨人的陨落:世纪三部曲 -0.001350 0.004886 -0.003609 0.002626 -0.004516 -0.002109 -0.001123 -0.000721 -0.004628 0.000799 -0.001355 -0.000931 0.004189 -0.003161 0.001812 0.002746 -0.002330 0.003598 -0.001018 -0.000422 0.003991 0.004676 -0.003968 -0.000529 0.002554 -0.000165 -0.002172 -0.000010 0.004307 0.004993 -0.001110 0.001536 -0.000069 0.000741 -0.000638 0.001986 0.003831 0.004839 -0.000356 0.003143 -0.000961 -0.000057 -0.000260 0.002772 -0.000814 0.004410 0.003032 0.001166 -0.001943 -0.001744 0.000365 0.002902 0.001119 -0.004989 -0.000100 -0.004598 0.004783 0.000135 -0.000868 0.003914 0.002463 0.003287 -0.004295 0.003946 -0.004006 -0.003055 0.003416 0.001676 0.001658 0.000479 -0.004561 -0.000979 -0.004552 0.004577 0.001231 -0.000604 -0.002866 0.004766 0.004536 -0.001539 -0.002228 0.004435 0.001852 -0.002459 0.002286 0.004989 -0.002617 -0.001624 0.002464 -0.002061 -0.002381 -0.002873 -0.000770 -0.003359 -0.000653 0.002078 0.004833 0.002020 -0.001100 -0.002727
中国历代政治得失 -0.001560 0.000093 -0.001739 0.000751 -0.002391 0.004130 0.003833 0.003613 0.002688 0.003455 0.001938 -0.001824 -0.002589 0.002187 -0.000869 0.004318 0.002693 -0.003299 -0.001150 -0.001891 -0.003596 -0.001050 0.003687 -0.000698 -0.001622 -0.004571 -0.003432 0.004274 -0.000758 0.001709 -0.004426 -0.001889 0.003506 0.003710 0.002607 0.001253 0.000657 0.002624 0.000177 -0.000842 -0.002303 -0.001545 -0.002750 -0.003276 0.000524 -0.000550 0.004183 0.002756 -0.001136 -0.001567 -0.000888 0.004290 -0.003662 -0.002856 -0.000315 -0.004711 0.004275 -0.004460 -0.002252 0.000710 -0.003002 0.002198 -0.003086 0.002478 0.003586 0.002095 0.002585 0.004273 0.003701 -0.002366 0.002049 0.003250 0.003826 0.000372 -0.004908 -0.002807 -0.001030 0.003505 -0.002321 -0.004771 0.002239 -0.001683 0.004450 -0.002811 -0.003275 -0.000266 0.001666 0.000097 0.001920 -0.000629 -0.001296 -0.001480 -0.003849 0.002942 0.003459 0.001079 -0.000361 -0.001302 -0.003111 0.000365
人类简史:从动物到上帝 0.002114 -0.000063 0.004495 0.000371 0.002811 -0.003617 0.003213 -0.002325 0.000971 0.004307 0.000622 0.003274 0.001425 -0.000551 0.002607 0.000528 -0.002080 0.000875 0.004378 -0.003228 0.003131 -0.004419 0.001255 0.004867 0.003928 0.000657 0.000760 0.001587 -0.003476 -0.002437 -0.003110 0.001639 0.001012 0.002210 -0.001047 -0.003265 0.003040 -0.000616 0.004352 0.004965 -0.004498 -0.004709 0.001753 -0.001198 0.004604 -0.002974 -0.001172 -0.002269 -0.003438 0.002915 0.002484 0.000001 0.000691 0.004455 -0.002341 -0.000583 -0.001923 0.001850 -0.003330 0.000192 0.002946 -0.004981 0.000714 0.002459 -0.000180 0.001128 -0.003575 0.001731 -0.003329 0.001208 0.000134 0.004170 0.000859 0.001077 -0.000371 0.003660 0.000455 0.001366 0.004891 0.000258 0.002684 0.004720 -0.000889 -0.001578 0.001867 0.002367 -0.000604 0.003536 -0.001215 0.002645 -0.003566 0.003835 0.003160 0.002965 0.002847 -0.003886 0.002525 0.003525 0.004106 0.001773
枪炮、病菌与钢铁:人类社会的命运 0.004942 -0.003568 -0.004026 -0.004908 -0.002355 0.002436 -0.001468 -0.003740 0.001493 -0.003344 -0.002481 0.004774 0.001192 0.000177 -0.004439 0.002038 0.004745 -0.002270 -0.003174 0.000890 -0.003071 -0.000937 -0.003591 0.001257 0.001237 -0.000460 0.004990 0.000331 0.000763 0.004504 -0.003892 0.001426 -0.003621 0.004538 0.001290 -0.000967 -0.001932 -0.004322 -0.001702 0.000734 -0.004177 -0.002439 0.002328 -0.003349 0.004338 -0.004155 -0.002829 0.004270 0.003063 -0.000650 -0.000815 -0.001789 0.003179 -0.003622 0.004924 -0.000532 -0.001504 -0.002886 -0.001576 0.000326 -0.001421 -0.004194 -0.000494 -0.004223 0.001844 0.001427 0.003762 -0.003813 -0.000149 0.004526 -0.004700 0.001797 0.003486 0.004086 -0.003536 0.001801 0.002969 0.001760 -0.001177 -0.001125 -0.003019 0.003249 -0.002064 0.004986 0.002601 0.000235 0.004914 0.000406 0.003465 -0.001983 -0.003640 -0.003542 0.003003 -0.004685 -0.004842 -0.000809 0.004183 -0.001359 0.002670 0.001985
