14 100
霍乱时期的爱情 0.000341 -0.001581 -0.003648 0.004830 -0.000708 0.003630 0.001769 0.003652 -0.004974 -0.004101 0.001731 -0.002780 0.003831 0.001313 -0.003760 0.003113 0.000879 0.000523 0.000089 -0.003616 -0.002262 -0.004339 0.004857 -0.001572 0.000485 -0.003102 0.003839 -0.002581 -0.000013 0.000821 0.003412 0.004706 0.003878 0.004307 0.004509 -0.003699 -0.000817 -0.000459 -0.003338 -0.002293 -0.001985 0.004658 -0.000811 0.000861 -0.004739 -0.000250 0.003651 -0.000571 0.003499 -0.004199 0.002035 -0.000080 0.002989 0.002764 -0.003416 0.000161 -0.002061 -0.004870 -0.002247 0.003037 0.000318 0.004307 -0.003408 -0.002958 -0.000888 0.000832 0.003753 -0.001055 0.003362 0.002793 0.001255 0.003872 -0.001803 -0.004232 -0.004822 -0.004290 0.002625 -0.000831 0.004126 0.000508 0.001007 -0.003818 -0.000586 0.004951 -0.001933 0.003500 0.002356 -0.001157 0.002975 -0.002310 -0.003134 -0.002921 -0.003952 0.002562 0.004900 -0.004550 0.002125 0.004231 -0.003786 -0.003011
迟到的间隔年 0.000104 -0.004162 0.000829 -0.002364 -0.003328 0.001822 -0.002226 -0.004548 -0.002393 0.000459 0.001764 -0.000426 0.000852 0.001680 0.003694 -0.001493 0.001665 0.004069 0.000427 -0.004506 0.002062 -0.001594 0.002370 0.004805 0.003827 -0.002375 -0.000197 0.002660 -0.004582 0.001477 0.003647 0.003338 -0.004717 0.000488 0.001999 0.000224 0.003337 -0.003933 0.002738 -0.004286 0.004205 -0.001839 0.003322 0.004663 0.004525 -0.000092 -0.003927 0.004385 0.000041 0.004124 -0.002952 0.003342 0.003853 -0.000886 -0.000405 0.000564 0.001260 -0.000042 0.000299 0.000702 -0.003027 0.001046 -0.001829 0.004617 -0.003096 -0.004073 0.000352 0.002756 0.002658 -0.000071 -0.000781 0.001103 -0.000459 -0.002151 0.001518 -0.004172 -0.004142 0.000510 0.002633 -0.000911 0.002884 0.000136 0.001700 -0.004906 -0.000649 -0.003158 0.002371 0.004724 0.001012 -0.003674 -0.000723 -0.004979 -0.004280 -0.002674 0.002121 0.003944 -0.003371 0.001097 -0.004655 -0.003465
失控 0.001034 -0.002580 -0.004440 0.001679 -0.001236 0.003872 -0.003472 -0.003994 -0.002383 -0.000742 0.000624 -0.002576 0.001818 -0.003061 0.000043 -0.000177 0.004748 0.001502 -0.002622 0.000861 0.000188 -0.001409 -0.001384 -0.002063 -0.000512 0.001000 -0.003299 -0.004508 -0.002175 0.000190 -0.004796 -0.000755 -0.002636 0.002616 -0.004562 -0.000986 0.000476 -0.001686 -0.000418 0.001033 0.002942 -0.001016 0.002673 -0.002311 -0.003853 0.004410 -0.000907 0.004740 0.001176 0.004033 0.002950 0.003760 -0.000490 -0.001627 0.001332 -0.003722 -0.004670 0.004195 -0.004117 0.003822 -0.001131 -0.000827 0.003535 0.000901 0.000903 -0.000548 -0.000327 0.004993 0.004012 -0.003424 -0.000289 0.002383 -0.004996 0.003194 0.001742 -0.002904 0.002049 0.004370 0.000694 -0.001944 0.003305 -0.002588 -0.000150 0.001927 -0.000936 0.004684 -0.001991 -0.004119 -0.001789 -0.003104 0.000339 -0.002344 -0.004935 0.004482 -0.001394 0.002246 -0.002154 -0.000306 0.001586 0.002728
背包十年:我的职业是旅行 0.003467 0.002418 0.003611 0.000877 -0.003978 0.001940 0.002021 0.000022 0.003343 -0.002969 -0.001666 -0.003520 -0.004663 0.003193 -0.002405 0.003480 -0.004455 0.004235 -0.002729 0.002860 0.002576 0.004256 0.000317 -0.004990 0.003602 -0.004418 -0.000884 0.001421 0.001825 0.002181 -0.002431 -0.000398 -0.004563 0.004682 0.002655 0.003634 -0.002239 -0.001904 0.003040 0.002747 0.004723 0.001166 -0.003588 -0.003420 -0.004902 0.000749 -0.001879 -0.001710 0.004176 -0.003771 0.001445 0.001197 0.002528 0.004413 0.002940 -0.003898 -0.003393 -0.001857 -0.001298 0.000780 -0.004228 0.001654 -0.003335 0.003159 0.003406 0.003377 0.002537 -0.001346 -0.003518 -0.001813 0.003397 -0.002213 0.003234 0.003745 0.001446 0.004577 0.003712 -0.001912 -0.000207 -0.003416 0.001306 0.004629 -0.000612 0.001540 -0.001272 0.003821 0.000286 0.003361 0.004798 -0.001144 -0.003167 0.000588 -0.003769 -0.003697 -0.003954 -0.000140 0.001493 0.000133 -0.002921 -0.003670
百年孤独 -0.004876 -0.002563 0.004840 0.001300 -0.004376 -0.004036 -0.004357 0.004397 0.000910 -0.000425 -0.004914 -0.001050 0.001202 -0.002103 0.003878 0.004819 -0.003517 -0.004564 -0.001873 0.002851 -0.004142 -0.003073 0.001072 -0.004323 0.004429 -0.000620 0.000015 -0.004884 0.002452 -0.002929 -0.003558 -0.003262 0.000587 -0.002916 -0.000377 -0.000440 0.000849 0.001640 0.001594 -0.004954 -0.004269 0.001436 -0.001933 0.004122 0.004916 -0.002626 0.003198 -0.001887 0.003091 -0.003368 -0.001522 -0.000958 0.000832 -0.000638 -0.003058 -0.002294 -0.003484 0.001444 0.000751 -0.001534 -0.004738 0.000561 0.000307 0.000003 0.004523 -0.004212 -0.002205 -0.000943 -0.004727 -0.003301 -0.001506 -0.000386 0.004606 0.004454 0.001034 0.002693 0.002126 -0.000146 0.002969 0.002068 0.002677 -0.003339 -0.004181 -0.004922 0.002980 0.000506 -0.002671 0.001728 -0.002991 -0.003004 -0.001926 0.004169 0.001160 0.004020 -0.002318 0.002787 -0.001044 0.004317 -0.003983 -0.003338
从0到1 -0.004548 0.001633 0.004607 -0.004575 -0.002616 -0.002316 -0.004532 0.002327 0.003073 0.000541 -0.004556 -0.003587 -0.000803 -0.003778 0.003741 -0.003968 0.002160 -0.003138 0.000034 -0.003263 0.001675 0.001878 0.002330 0.000012 0.003274 -0.004289 0.003926 -0.002439 -0.002248 -0.004776 -0.000469 0.002104 -0.001714 -0.001405 -0.004446 0.003086 -0.003216 0.000741 -0.004636 0.004864 0.003429 0.001189 -0.003913 0.000432 -0.003211 -0.001743 -0.004490 -0.003577 0.004561 -0.001395 -0.002173 0.004795 -0.004843 0.004455 -0.000751 -0.004932 0.004753 -0.003558 -0.002256 0.004074 -0.002809 -0.003340 -0.001948 0.004133 0.002586 0.001000 -0.003964 -0.002229 -0.003910 -0.001062 0.000986 -0.001404 0.001661 0.002488 0.002866 -0.000788 -0.002371 -0.003949 -0.002664 0.001309 0.000584 0.003965 -0.003149 -0.002168 0.002788 0.002094 0.002047 -0.002551 -0.002681 -0.004246 0.000213 0.003166 -0.003790 0.002220 0.003691 -0.003197 0.002367 0.002203 0.002676 0.004748
浪潮之巅 0.004240 -0.003220 0.003873 -0.002691 0.000212 0.002241 -0.004509 -0.000891 0.000190 -0.000092 -0.002099 0.002414 0.001043 -0.003796 -0.003826 -0.003507 0.000398 0.004510 -0.003900 0.003724 0.003198 -0.000376 -0.002513 0.002197 0.001702 -0.000495 -0.000311 -0.001057 0.000816 0.003705 -0.003330 -0.000417 0.003741 -0.001732 -0.002983 -0.003193 0.000326 0.003638 -0.003579 -0.001595 -0.004723 0.003394 -0.003626 -0.002483 -0.001477 0.003369 0.003908 -0.000869 0.000089 -0.004910 -0.004934 -0.004193 0.002169 0.004029 -0.004324 0.003928 0.001393 -0.001386 -0.001134 0.002073 -0.001766 0.003945 0.003743 -0.002474 0.003066 -0.004160 -0.003161 -0.000284 0.001640 0.001349 0.002309 -0.001819 0.004693 0.000957 0.004333 0.000259 -0.003490 -0.004046 0.003829 -0.002516 0.001229 0.004836 -0.002467 -0.002606 -0.001207 -0.000699 0.003257 0.001682 -0.000335 -0.002789 0.000981 0.001875 -0.003465 0.004276 0.002127 -0.004372 0.004447 0.001973 -0.002187 -0.002894
创业维艰 -0.003392 -0.001046 0.001785 0.002634 -0.004911 -0.001801 -0.001403 -0.000427 -0.000103 0.001278 0.001149 0.002525 0.000238 -0.001584 -0.000336 -0.004441 -0.004453 -0.002719 0.001301 -0.000181 0.002429 -0.003210 -0.001478 0.004367 -0.002089 0.003747 -0.004016 0.001287 -0.000126 -0.003083 -0.000101 0.004825 0.000821 -0.002747 -0.004182 0.002590 -0.002062 0.004297 -0.003304 0.001473 0.004035 0.002925 -0.002419 0.000485 0.001947 0.002930 0.001337 0.004400 0.001062 0.000859 0.004528 0.003695 -0.003053 0.003824 -0.000149 0.003279 0.001491 0.003017 0.004896 0.004001 0.000703 -0.003030 0.000367 0.003676 0.000715 0.003806 0.001209 0.003112 0.004038 0.004032 0.004856 -0.003721 0.000952 0.002364 0.000817 0.003008 -0.000496 -0.004356 -0.002689 -0.000004 0.004821 0.004669 -0.002134 -0.002717 0.001892 0.001505 -0.002075 -0.000900 -0.002707 -0.002766 0.004251 0.002431 -0.003019 -0.001968 -0.002933 0.002044 -0.003138 -0.004022 -0.002973 0.001670
寻路中国:从乡村到工厂的自驾之旅 -0.003909 -0.000397 0.004257 -0.002597 -0.004402 -0.004595 -0.001738 0.001699 0.004569 0.004081 -0.004994 -0.001682 0.002871 0.000917 -0.004801 0.003797 -0.002244 -0.001123 0.003337 0.002612 -0.000048 -0.001376 -0.004360 0.001085 -0.002378 -0.004394 -0.000644 0.004721 0.003238 -0.000989 0.000062 0.001588 -0.000325 -0.004615 -0.003587 0.000915 -0.000189 0.004552 -0.003157 -0.000396 0.003835 0.000998 0.001477 -0.003256 -0.004953 -0.002402 0.002613 -0.003770 0.004235 0.003571 0.000772 0.003417 0.002516 -0.002202 0.003753 -0.000620 -0.002487 0.003660 -0.001850 0.001779 0.001974 0.004339 0.001990 -0.002559 0.004294 0.003621 0.004075 0.001320 -0.001473 -0.002575 -0.004538 -0.004770 -0.003616 0.003125 -0.004396 0.003566 0.002444 0.001610 -0.002529 -0.002620 0.001706 -0.002851 0.001704 0.000574 -0.000488 0.001980 -0.002531 -0.001691 0.001521 0.000797 0.000596 0.000275 0.000209 0.000876 -0.003015 -0.003054 0.004677 -0.002350 -0.002175 -0.000545
活着 -0.000128 -0.003291 0.001157 0.000675 -0.000954 0.000205 -0.000922 -0.000657 -0.003627 0.003091 0.004734 0.000089 0.003425 0.003124 0.004474 0.003018 -0.002501 -0.000487 0.003541 -0.000847 -0.003428 0.001548 -0.002793 0.002290 -0.004191 0.003694 -0.004393 0.000262 -0.002568 -0.004086 -0.003135 0.002965 -0.001519 0.000027 0.003122 -0.000929 0.004276 0.000282 0.003099 -0.004728 0.003250 -0.002723 0.004026 0.002830 -0.000162 0.004121 -0.001702 0.002749 -0.003342 -0.001654 0.002405 0.000322 -0.001454 0.003781 0.000753 0.002628 0.001577 0.001312 0.004048 -0.002077 0.002760 0.004630 0.003008 -0.002993 0.000934 0.002866 0.001426 -0.004448 -0.003310 0.002220 0.004296 0.000711 -0.002153 -0.001301 0.003767 0.004815 -0.001492 0.001849 0.002704 0.003518 -0.001046 -0.003216 0.000036 -0.000213 0.003910 -0.000867 0.003067 0.002567 0.001490 -0.004917 0.002566 0.000294 0.000761 0.003156 0.004262 0.000764 -0.004364 0.000453 0.003448 0.000741
巨人的陨落:世纪三部曲 -0.003288 -0.001527 0.004057 0.004427 0.004156 0.000341 0.001816 -0.002663 0.003878 0.004175 0.000621 -0.002989 -0.003993 -0.001853 0.002008 0.002265 0.003569 0.003193 -0.003341 -0.004173 -0.004640 -0.004500 -0.003759 -0.004174 0.003081 -0.003762 -0.000631 -0.003647 0.004051 0.003930 0.004521 -0.004804 0.002782 -0.003816 0.002064 -0.004897 0.000405 -0.003789 -0.004933 0.003816 0.002922 -0.002445 0.000825 0.001848 0.004839 0.002213 -0.004942 0.000437 -0.004294 0.001589 0.004015 0.004179 -0.003236 0.002037 0.002251 -0.001310 0.003472 0.002555 -0.003383 0.001216 0.003839 -0.003526 0.000379 -0.000968 -0.004519 0.002774 -0.004601 -0.000222 -0.002937 0.003054 -0.000989 0.000959 0.001392 -0.001668 0.002330 -0.003622 0.001810 -0.004757 0.003641 0.000776 -0.000693 0.000705 0.003056 0.003051 0.002463 -0.000980 0.001694 0.002810 -0.003523 -0.002036 -0.002398 0.003211 0.003951 -0.002557 -0.004616 -0.000068 0.002571 0.001518 -0.004272 0.001822
中国历代政治得失 -0.003061 0.000820 -0.001169 -0.003410 0.000018 -0.003493 -0.000169 -0.004470 -0.004554 -0.001934 -0.002803 -0.000591 0.002186 0.002333 -0.001478 -0.004066 0.000059 -0.003438 -0.003881 0.000192 0.004434 0.000561 -0.002890 -0.003501 -0.003969 0.003246 -0.000073 -0.003939 -0.002980 -0.001762 0.000062 0.000698 0.003845 0.001707 -0.001878 -0.001507 -0.000374 -0.002774 0.000180 -0.001827 0.004985 0.004717 0.002949 0.000398 -0.002172 0.004346 0.000071 -0.004410 -0.001384 -0.002854 -0.003211 -0.003863 -0.000690 -0.000478 0.002035 0.001054 0.004997 0.002977 0.002392 0.001435 -0.004474 0.000926 0.004837 0.003411 0.000028 -0.000638 0.003521 -0.002300 0.002189 -0.004534 -0.002073 0.001400 0.003612 -0.004517 0.003616 0.004261 -0.000405 -0.003941 0.002781 -0.004794 0.004658 0.001016 -0.004095 -0.002095 -0.001936 0.004518 0.003245 -0.004558 0.002907 0.003296 0.002410 -0.003673 0.000998 -0.003198 -0.001520 -0.002152 -0.001220 0.000895 -0.002219 0.004373
人类简史:从动物到上帝 0.001700 -0.004831 0.000530 0.003391 0.003919 -0.001923 -0.002986 -0.000384 0.000671 -0.004748 0.000358 0.000604 0.004346 0.000966 -0.002971 0.003595 -0.003415 0.004063 0.000778 -0.000596 -0.004398 0.004850 0.001724 0.004475 0.002264 0.004945 -0.004966 0.000529 -0.002724 0.004093 0.000980 0.002916 -0.002966 0.004637 0.004505 0.001981 -0.004644 -0.002190 0.004241 0.001251 -0.002442 -0.002608 -0.002552 0.000668 0.004790 0.002902 -0.003427 0.001863 -0.004491 0.002356 -0.002307 0.001998 0.004316 -0.001375 -0.004770 -0.002075 0.003375 0.001863 -0.004537 -0.001484 0.004579 0.000248 -0.004876 -0.000926 0.001032 -0.000512 -0.000314 -0.002612 0.004532 -0.001237 0.000402 -0.002544 -0.001872 -0.004974 0.003604 0.003827 -0.002387 -0.003994 0.000525 0.003417 0.003324 -0.004049 0.002080 0.003935 -0.002685 0.002876 -0.003810 0.001487 -0.001158 0.004726 -0.000042 -0.000359 0.002407 0.001630 -0.001216 -0.001011 0.000822 -0.004530 0.004348 -0.000754
枪炮、病菌与钢铁:人类社会的命运 -0.001233 -0.001945 0.004851 0.000023 0.002653 0.001089 -0.002347 -0.003066 -0.001572 0.003976 0.004816 0.001863 0.004590 0.004221 0.002433 -0.000455 -0.003578 0.003285 0.001301 -0.000055 -0.002111 0.003121 0.004889 -0.000439 0.003513 -0.002134 0.004512 -0.001821 0.000586 0.002856 -0.002439 0.003969 -0.001217 -0.004968 0.002537 -0.003415 -0.003790 -0.004209 0.003469 -0.001906 0.000334 -0.002276 -0.003907 -0.002569 0.003858 -0.004650 -0.003630 0.000537 -0.002655 -0.002938 0.003393 -0.001381 -0.000319 0.001977 0.004978 0.002508 -0.003239 0.000989 0.003752 -0.004151 0.001626 0.002218 -0.000372 -0.000057 0.002233 -0.004384 0.003626 -0.001402 0.003712 0.004538 -0.003143 0.004616 -0.004011 0.004766 -0.001712 0.003730 0.004154 0.002355 0.000462 0.002772 -0.002193 -0.004852 0.000020 0.000583 -0.001038 0.004227 0.001463 0.002269 -0.000875 -0.002191 -0.002230 -0.004369 0.001233 -0.003608 0.002058 0.000001 0.000323 0.001016 0.004505 0.000494
